svm_type c_svc
kernel_type linear
nr_class 2
total_sv 2
rho 0.166667
label 2 -2
nr_sv 1 1
SV
0.08333333333333333 0:2 1:1 2:1 3:1 4:1 5:1 6:1 7:0 8:0 
-0.08333333333333333 0:-2 1:0 2:0 3:0 4:0 5:0 6:0 7:1 8:1 
